<?xml version="1.0"?>
<opencv_storage>
<my_svm type_id="opencv-ml-svm">
  <svm_type>NU_SVC</svm_type>
  <kernel><type>RBF</type>
    <gamma>2.2500000000000003e-003</gamma></kernel>
  <nu>2.9999999999999999e-002</nu>
  <term_criteria><epsilon>2.2204460492503131e-016</epsilon>
    <iterations>1000</iterations></term_criteria>
  <var_all>32</var_all>
  <var_count>32</var_count>
  <class_count>2</class_count>
  <class_labels type_id="opencv-matrix">
    <rows>1</rows>
    <cols>2</cols>
    <dt>i</dt>
    <data>
      0 1</data></class_labels>
  <sv_total>28</sv_total>
  <support_vectors>
    <_>
      -2.91390985e-001 1.44231003e-002 -3.31125990e-003 -1.15385003e-001
      -3.31125990e-003 -9.13461968e-002 -6.62251981e-003
      -2.06731007e-001 -3.31126004e-002 2.45192006e-001 7.61589035e-002
      1.58654004e-001 3.31126004e-002 -5.00000000e-001 -5.29800989e-002
      -4.95191991e-001 -1.29139006e-001 0. -1.32449999e-001
      9.61538032e-003 0. -8.65385011e-002 -3.31125990e-003
      -8.65385011e-002 -6.62252009e-002 -3.99037987e-001 7.94702023e-002
      -4.03845996e-001 -1.45695001e-001 4.80769016e-003 -2.40384992e-002
      6.62251981e-003</_>
    <_>
      -3.02904993e-001 -1.75439008e-002 0. -1.22807004e-001
      4.14938014e-003 -9.94151980e-002 4.14938014e-003 -2.22222000e-001
      -4.56431992e-002 2.33917996e-001 7.46887997e-002 1.92982003e-001
      5.39419018e-002 -4.79532003e-001 -3.31950001e-002 -4.85379994e-001
      -1.36929005e-001 -5.84795000e-003 -1.41078994e-001
      -5.84795000e-003 0. -9.35672969e-002 0. -9.35672969e-002
      -4.97924984e-002 -2.98245996e-001 8.29875991e-002 -2.86549985e-001
      -1.32780001e-001 -1.16959000e-002 1.75439008e-002 -4.14938014e-003</_>
    <_>
      -2.79527992e-001 -1.69491991e-002 7.87402038e-003 -1.58191994e-001
      3.93701019e-003 -9.60452035e-002 1.18110003e-002 -2.54236996e-001
      -3.14961001e-002 2.37287998e-001 5.11811003e-002 1.92090005e-001
      5.51180989e-002 -4.97175008e-001 -1.96850002e-002 -5.08475006e-001
      -1.29921004e-001 -1.12993997e-002 -1.29921004e-001 0.
      3.93701019e-003 -8.47458020e-002 0. -8.47458020e-002
      -5.90551011e-002 -3.27683985e-001 7.87402019e-002 -3.27683985e-001
      -1.37795001e-001 0. 5.64972013e-002 -9.05511975e-002</_>
    <_>
      -2.51552999e-001 4.06504003e-003 0. -1.13821000e-001 0.
      -9.75610018e-002 0. -2.11382002e-001 -1.55280000e-002
      2.23576993e-001 4.65838015e-002 1.66666999e-001 3.10558989e-003
      -4.67480004e-001 -9.31677036e-003 -4.75609988e-001
      -1.30435005e-001 4.06504003e-003 -1.30435005e-001 8.13008007e-003
      0. -7.31706992e-002 0. -7.31706992e-002 -9.31676999e-002
      -3.37397993e-001 9.31676999e-002 -3.57724011e-001 -1.86334997e-001
      2.03252006e-002 -1.62601992e-002 -1.24223996e-002</_>
    <_>
      -2.94820994e-001 2.60416996e-002 -3.98406014e-003 -1.30208001e-001
      -3.98406014e-003 -1.25000000e-001 -7.96812959e-003
      -2.55207986e-001 -1.99203007e-002 2.55207986e-001 6.77291006e-002
      1.77083001e-001 1.99203007e-002 -5.05208015e-001 -6.37449995e-002
      -4.94792014e-001 -1.27489999e-001 0. -1.27489999e-001
      1.56250000e-002 -3.98406014e-003 -7.81250000e-002 -3.98406014e-003
      -7.29167014e-002 -9.56175029e-002 -3.33332986e-001 7.56971985e-002
      -3.54167014e-001 -1.71314999e-001 2.08333004e-002 -4.68750000e-002
      2.78884005e-002</_>
    <_>
      -2.90322989e-001 5.20833023e-003 -4.03225981e-003 -1.66666999e-001
      0. -7.29167014e-002 -4.03225981e-003 -2.39583001e-001
      -8.06451961e-003 2.23958001e-001 5.24194017e-002 1.66666999e-001
      2.01613009e-002 -4.06250000e-001 -3.22581008e-002 -4.11457986e-001
      -1.33065000e-001 0. -1.33065000e-001 1.04166996e-002 0.
      -6.77082986e-002 0. -7.29167014e-002 -8.06452036e-002
      -2.70832986e-001 7.25805983e-002 -2.81250000e-001 -1.53226003e-001
      1.04166996e-002 -1.56250000e-002 -1.20967999e-002</_>
    <_>
      -2.71429002e-001 -4.54545021e-003 3.57142999e-003 -1.04544997e-001
      0. -9.09091011e-002 3.57142999e-003 -1.95455000e-001
      -3.57142985e-002 2.13635996e-001 5.00000007e-002 1.54544994e-001
      1.78571008e-002 -4.49999988e-001 -3.21428999e-002 -4.54544991e-001
      -1.39285997e-001 0. -1.35713995e-001 4.54545021e-003 0.
      -7.72726983e-002 0. -7.27273002e-002 -8.21428970e-002
      -3.18181992e-001 6.07143007e-002 -3.22726995e-001 -1.42857000e-001
      4.54545021e-003 -4.54545021e-003 0.</_>
    <_>
      -2.98137009e-001 1.17188003e-002 0. -1.17187999e-001
      -3.10558989e-003 -9.76563022e-002 -3.10558989e-003
      -2.14844003e-001 -3.10558993e-002 2.18750000e-001 6.21117987e-002
      1.67969003e-001 1.86334997e-002 -4.60938007e-001 -5.27950004e-002
      -4.64843988e-001 -1.39752001e-001 3.90625000e-003 -1.39752001e-001
      1.17188003e-002 -3.10558989e-003 -8.20313022e-002 0.
      -8.20313022e-002 -9.93788987e-002 -2.96875000e-001 7.45342001e-002
      -3.08593988e-001 -1.73913002e-001 1.17188003e-002 -5.85937984e-002
      6.21117987e-002</_>
    <_>
      -2.64535010e-001 -1.13636004e-002 0. -1.17423996e-001
      2.90697999e-003 -7.57576004e-002 2.90697999e-003 -1.93182006e-001
      -1.16279004e-002 2.08333001e-001 5.23255989e-002 1.78029999e-001
      1.16279004e-002 -4.43181992e-001 -1.45349000e-002 -4.54544991e-001
      -1.30814001e-001 -3.78788006e-003 -1.30814001e-001 7.57576013e-003
      0. -7.57576004e-002 0. -7.95454979e-002 -8.13954026e-002
      -2.72727013e-001 9.01162997e-002 -2.72727013e-001 -1.71511993e-001
      0. 0. -2.90697999e-003</_>
    <_>
      -3.11953008e-001 0. 0. -1.43911004e-001 0. -6.64206967e-002 0.
      -2.10332006e-001 -2.33235992e-002 1.95572004e-001 6.41399026e-002
      1.58672005e-001 5.53935990e-002 -4.50183988e-001 -3.20699997e-002
      -4.53875005e-001 -1.42857000e-001 -7.38007016e-003
      -1.45772994e-001 1.10700997e-002 0. -8.85609016e-002 0.
      -8.85609016e-002 -6.12245016e-002 -3.21033001e-001 9.91254002e-002
      -3.28413010e-001 -1.60349995e-001 7.38007016e-003 -1.10700997e-002
      -2.62391008e-002</_>
    <_>
      -2.77310997e-001 5.12820994e-003 0. -1.12820998e-001 0.
      -9.74358991e-002 0. -2.10255995e-001 -1.68066993e-002
      2.20513001e-001 6.72269017e-002 1.74358994e-001 2.52100993e-002
      -4.35896993e-001 -3.78151014e-002 -4.35896993e-001
      -1.38655007e-001 1.02564003e-002 -1.42857000e-001 5.12820994e-003
      -4.20167996e-003 -7.69231021e-002 4.20167996e-003 -7.69231021e-002
      -6.30251989e-002 -2.35897005e-001 6.72269017e-002 -2.46153995e-001
      -1.30252004e-001 1.02564003e-002 -1.53845996e-002 -2.52100993e-002</_>
    <_>
      -2.82132000e-001 1.70939993e-002 -6.26959000e-003 -1.19658001e-001
      -9.40439012e-003 -1.28205001e-001 -1.56740006e-002
      -2.47862995e-001 -6.26959000e-003 2.43589997e-001 7.83699006e-002
      1.83761001e-001 3.13479989e-003 -5.25641024e-001 -5.64263016e-002
      -5.17094016e-001 -1.34795994e-001 0. -1.37931004e-001
      2.13674996e-002 -3.13479989e-003 -8.97435993e-002 -6.26959000e-003
      -8.97435993e-002 -8.77742991e-002 -3.37606996e-001 8.46394971e-002
      -3.50427002e-001 -1.72414005e-001 1.28204999e-002 -4.27349992e-002
      4.38871011e-002</_>
    <_>
      -2.72109002e-001 -8.69564991e-003 3.40136001e-003 -1.04347996e-001
      0. -9.56522003e-002 3.40136001e-003 -2.00000003e-001
      -2.72109006e-002 2.17390999e-001 5.78230992e-002 1.73913002e-001
      2.38095000e-002 -4.52174008e-001 -2.72109006e-002 -4.56521988e-001
      -1.25850007e-001 0. -1.29252002e-001 0. -3.40136001e-003
      -6.95651993e-002 3.40136001e-003 -6.95651993e-002 -9.18366984e-002
      -2.82608986e-001 8.16327035e-002 -2.82608986e-001 -1.73469007e-001
      0. 1.73912998e-002 -3.74150015e-002</_>
    <_>
      -3.19999993e-001 -1.38889002e-002 3.63635994e-003 -1.06481001e-001
      0. -1.06481001e-001 3.63635994e-003 -2.12963000e-001
      -4.36364003e-002 2.08333001e-001 7.27273002e-002 1.62037000e-001
      5.45454994e-002 -4.39815015e-001 -3.27273011e-002 -4.39815015e-001
      -1.38181999e-001 -9.25926026e-003 -1.38181999e-001
      -4.62963013e-003 0. -7.87037015e-002 3.63635994e-003
      -7.87037015e-002 -6.54544979e-002 -2.96296000e-001 8.36364031e-002
      -2.82406986e-001 -1.49091005e-001 -1.38889002e-002 4.62962985e-002
      -3.63636017e-002</_>
    <_>
      -2.44966000e-001 -9.47866961e-003 3.35570006e-003 -1.18483000e-001
      0. -1.09004997e-001 3.35570006e-003 -2.27487996e-001
      -2.68456005e-002 2.36966997e-001 5.03356010e-002 1.80095002e-001
      1.34228002e-002 -4.88151997e-001 -2.01341994e-002 -4.97630000e-001
      -1.24160998e-001 0. -1.27517000e-001 4.73933993e-003
      -3.35570006e-003 -8.05687010e-002 0. -7.58294016e-002
      -8.38925987e-002 -3.50710988e-001 7.71811977e-002 -3.55450004e-001
      -1.61073998e-001 4.73933993e-003 -4.73933993e-003 3.35570006e-003</_>
    <_>
      -2.87791014e-001 0. 0. -1.28787994e-001 0. -7.19697028e-002 0.
      -2.00757995e-001 -2.03488003e-002 2.19696999e-001 5.81394993e-002
      1.62879005e-001 3.77907008e-002 -4.62121010e-001 -2.61627994e-002
      -4.62121010e-001 -1.42442003e-001 -1.13636004e-002
      -1.42442003e-001 1.13636004e-002 0. -9.09091011e-002
      -2.90697999e-003 -8.71212035e-002 -5.23255989e-002
      -3.14393997e-001 8.72092992e-002 -3.14393997e-001 -1.39534995e-001
      0. -3.78788006e-003 -8.72092973e-003</_>
    <_>
      -2.62856990e-001 0. 0. -9.44055989e-002 -2.85714003e-003
      -9.09091011e-002 -2.85714003e-003 -1.85314998e-001 2.85714003e-003
      2.13286996e-001 5.42857014e-002 1.64335996e-001 0.
      -4.33566004e-001 -3.14286016e-002 -4.33566004e-001
      -1.25714004e-001 3.49649996e-003 -1.25714004e-001 0.
      -5.71428984e-003 -5.59441000e-002 2.85714003e-003 -5.59441000e-002
      -8.28571022e-002 -2.79720008e-001 8.28571022e-002 -2.86713004e-001
      -1.65713996e-001 6.99301017e-003 0. -1.14286002e-002</_>
    <_>
      -2.37287998e-001 5.10203978e-003 -3.38983000e-003 -1.42857000e-001
      0. -8.67346972e-002 -3.38983000e-003 -2.29591995e-001
      6.77966001e-003 2.34694004e-001 5.08475006e-002 1.88776001e-001 0.
      -5.20407975e-001 -1.35593005e-002 -5.20407975e-001
      -1.22033998e-001 -5.10203978e-003 -1.25423998e-001 1.02041001e-002
      0. -8.67346972e-002 0. -9.18366984e-002 -8.13558996e-002
      -3.62244993e-001 8.47458020e-002 -3.67347002e-001 -1.66102007e-001
      5.10203978e-003 -1.53061002e-002 1.01694996e-002</_>
    <_>
      -2.78809994e-001 1.05820000e-002 3.71746998e-003 -8.46560970e-002
      0. -8.46560970e-002 3.71746998e-003 -1.69312000e-001
      -1.11523997e-002 2.27513000e-001 4.83270995e-002 1.74603000e-001
      7.43493997e-003 -4.65608001e-001 -3.34572010e-002 -4.70898986e-001
      -1.18959002e-001 0. -1.15241997e-001 1.05820000e-002
      -3.71746998e-003 -6.87830970e-002 0. -6.87830970e-002
      -9.66543034e-002 -3.22750986e-001 6.31970018e-002 -3.33332986e-001
      -1.59851000e-001 1.05820000e-002 -2.11640000e-002 1.11523997e-002</_>
    <_>
      -2.98507005e-001 1.22950999e-002 0. -1.18851997e-001
      -5.97015023e-003 -9.83607024e-002 -5.97015023e-003
      -2.17213005e-001 -4.17909995e-002 2.33606994e-001 8.35821033e-002
      1.55737996e-001 4.47761007e-002 -4.91802990e-001 -5.37312999e-002
      -4.79508013e-001 -1.37312993e-001 -8.19671992e-003
      -1.34327993e-001 1.22950999e-002 2.98506999e-003 -9.42623019e-002
      -2.98506999e-003 -9.01639014e-002 -7.16418028e-002
      -3.15573990e-001 6.86566979e-002 -3.15573990e-001 -1.40299007e-001
      0. 8.19671992e-003 -2.38806009e-002</_>
    <_>
      -2.65100986e-001 0. 3.35570006e-003 -9.41703990e-002
      -3.35570006e-003 -9.86547023e-002 0. -1.92825004e-001
      -3.02012991e-002 2.37667993e-001 5.03356010e-002 1.56950995e-001
      6.71140989e-003 -4.52915013e-001 -4.02684994e-002 -4.57399011e-001
      -1.27517000e-001 0. -1.27517000e-001 4.48430981e-003 0.
      -6.72646016e-002 -3.35570006e-003 -7.17488974e-002
      -9.06039998e-002 -3.04933012e-001 5.36913015e-002 -3.00448000e-001
      -1.44295007e-001 -4.48430981e-003 -1.79372001e-002 3.02012991e-002</_>
    <_>
      -3.27217013e-001 -4.32900013e-003 3.05809989e-003 -1.42857000e-001
      3.05809989e-003 -9.52380970e-002 6.11621002e-003 -2.38095000e-001
      -4.89296988e-002 2.16450006e-001 7.95107037e-002 1.73160002e-001
      5.19878007e-002 -4.80518997e-001 -4.58716005e-002 -4.93506014e-001
      -1.40672997e-001 -4.32900013e-003 -1.46788999e-001 1.29869999e-002
      0. -9.95671004e-002 0. -9.95671004e-002 -6.72783032e-002
      -3.33332986e-001 8.56269002e-002 -3.50648999e-001 -1.52905002e-001
      1.73160005e-002 8.65800958e-003 -6.42201975e-002</_>
    <_>
      -2.72727013e-001 -4.40528989e-003 3.36700003e-003 -1.32158995e-001
      0. -1.36564001e-001 3.36700003e-003 -2.68721998e-001
      -3.36700007e-002 2.55506992e-001 6.73400983e-002 1.93832994e-001
      2.69360002e-002 -5.02202988e-001 -3.36700007e-002 -5.15419006e-001
      -1.31312996e-001 4.40528989e-003 -1.38046995e-001 4.40528989e-003
      -3.36700003e-003 -7.92952031e-002 0. -8.37004036e-002
      -6.39730990e-002 -2.95154005e-001 7.74410963e-002 -3.08369994e-001
      -1.41414002e-001 1.32159004e-002 0. -5.05050011e-002</_>
    <_>
      -2.45847002e-001 0. 0. -1.18643999e-001 0. -1.10169001e-001 0.
      -2.28814006e-001 -1.66113004e-002 2.37287998e-001 5.31561002e-002
      1.77965999e-001 1.99336000e-002 -4.95763004e-001 -9.96678043e-003
      -5.04236996e-001 -1.22924000e-001 4.23729001e-003 -1.29567996e-001
      8.47458001e-003 0. -6.77966028e-002 0. -7.20338970e-002
      -5.64783998e-002 -3.51695001e-001 9.63454992e-002 -3.64407003e-001
      -1.52824000e-001 1.27119003e-002 -2.11864002e-002 -3.32226008e-002</_>
    <_>
      -2.70700991e-001 1.16731999e-002 3.18470993e-003 -9.33851972e-002
      -3.18470993e-003 -9.33851972e-002 0. -1.86770007e-001
      -1.91082992e-002 2.02335000e-001 5.73248006e-002 1.55642003e-001
      9.55414027e-003 -4.51362014e-001 -3.50317992e-002 -4.55253005e-001
      -1.33757994e-001 3.89104988e-003 -1.27388999e-001 1.16731999e-002
      -3.18470993e-003 -6.61479011e-002 0. -6.61479011e-002
      -1.05095997e-001 -2.76264995e-001 8.59872997e-002 -2.95720011e-001
      -1.91082999e-001 1.94553006e-002 -4.66925986e-002 3.82165983e-002</_>
    <_>
      -2.94521004e-001 2.69057993e-002 -6.84932014e-003 -1.25560999e-001
      -6.84932014e-003 -1.12108000e-001 -1.36986002e-002
      -2.37667993e-001 -4.45205010e-002 2.69057989e-001 7.53424987e-002
      1.52465999e-001 2.05479003e-002 -4.43946004e-001 -7.19178021e-002
      -4.34978008e-001 -1.23287998e-001 1.79372001e-002 -1.26711994e-001
      8.96861032e-003 -3.42466007e-003 -6.27802983e-002 -3.42466007e-003
      -6.27802983e-002 -7.87670985e-002 -2.86996007e-001 5.13699017e-002
      -3.04933012e-001 -1.30136997e-001 1.79372001e-002 -6.27802983e-002
      4.45205010e-002</_>
    <_>
      -2.91209012e-001 -7.96812959e-003 0. -1.39441997e-001 0.
      -7.56971985e-002 0. -2.15139002e-001 -1.64835006e-002
      2.23107994e-001 5.76923005e-002 1.75299004e-001 3.02198008e-002
      -4.62150991e-001 -3.02198008e-002 -4.66134995e-001
      -1.29121006e-001 -3.98406014e-003 -1.34615004e-001 3.98406014e-003
      0. -8.36652964e-002 0. -8.76493976e-002 -7.41757974e-002
      -3.34661007e-001 8.79120976e-002 -3.34661007e-001 -1.62088007e-001
      0. 2.39043999e-002 -4.39560004e-002</_>
    <_>
      -2.74435997e-001 2.61780005e-002 -3.75939999e-003 -1.09948002e-001
      -7.51879998e-003 -1.20419003e-001 -1.12782000e-002
      -2.30366006e-001 -1.12782000e-002 2.51309007e-001 6.76691979e-002
      1.83246002e-001 1.12782000e-002 -5.13089001e-001 -6.01503998e-002
      -5.02618015e-001 -1.24059997e-001 1.04711996e-002 -1.20301001e-001
      1.57067999e-002 -3.75939999e-003 -7.85339996e-002 -3.75939999e-003
      -7.32984021e-002 -8.27068016e-002 -3.19371998e-001 6.39097989e-002
      -3.35079014e-001 -1.46616995e-001 1.57067999e-002 -4.18847986e-002
      2.63158008e-002</_></support_vectors>
  <decision_functions>
    <_>
      <sv_count>28</sv_count>
      <rho>-6.2685453561475822e+002</rho>
      <alpha>
        1.4262232163594665e+007 1.8278625334887672e+006
        1.0320346424184022e+007 5.0455041490798639e+006
        4.1937756694153589e+006 4.3589467126780096e+006
        4.4626695728570903e+006 5.4491187533170695e+005
        1.1527943778454145e+007 6.9034428148127778e+005
        6.7592552536295792e+006 7.0724675382924834e+006
        7.5766830600493005e+005 -3.8982324774542246e+006
        -6.8899963018224984e+006 -1.0480452539339898e+007
        -3.4742805757539971e+006 -8.6496931686805282e+006
        -1.9281510769952618e+005 -2.1313069990915034e+005
        -1.0660202867468458e+005 -7.1101170568268318e+006
        -4.1812564764674031e+006 -8.8497117604654894e+004
        -4.6225268315600278e+006 -6.0069900651095165e+006
        -1.0901414772912221e+007 -5.0079230386767667e+006</alpha>
      <index>
        0 1 2 3 4 5 6 7 8 9 10 11 12 13 14 15 16 17 18 19 20 21 22 23 24
        25 26 27</index></_></decision_functions></my_svm>
</opencv_storage>
