<?xml version="1.0"?>
<opencv_storage>
<my_svm type_id="opencv-ml-svm">
  <svm_type>NU_SVC</svm_type>
  <kernel><type>RBF</type>
    <gamma>1.0000000000000001e-005</gamma></kernel>
  <nu>8.9999999999999997e-002</nu>
  <term_criteria><epsilon>2.2204460492503131e-016</epsilon>
    <iterations>1000</iterations></term_criteria>
  <var_all>32</var_all>
  <var_count>32</var_count>
  <class_count>2</class_count>
  <class_labels type_id="opencv-matrix">
    <rows>1</rows>
    <cols>2</cols>
    <dt>i</dt>
    <data>
      0 1</data></class_labels>
  <sv_total>10</sv_total>
  <support_vectors>
    <_>
      -2.55737990e-001 8.81057046e-003 -9.83607024e-003 -2.59912014e-001
      -3.27868992e-003 -7.04846010e-002 -1.31147997e-002
      -3.30395997e-001 -1.96720995e-002 2.33480006e-001 7.21310973e-002
      1.67401001e-001 1.63934007e-002 -4.80176002e-001 -3.93442996e-002
      -4.80176002e-001 -1.27868995e-001 4.40528989e-003 -1.31147996e-001
      1.32159004e-002 -3.27868992e-003 -7.48898983e-002 -3.27868992e-003
      -7.48898983e-002 -6.88524991e-002 -3.52423012e-001 8.19671974e-002
      -3.70043993e-001 -1.50820002e-001 1.76210999e-002 -2.64317002e-002
      -2.29508001e-002</_>
    <_>
      -2.45902002e-001 9.70873982e-003 -3.27868992e-003 -1.40777007e-001
      -3.27868992e-003 -9.22330022e-002 -6.55737985e-003
      -2.33009994e-001 -6.55737985e-003 2.37864003e-001 5.57377003e-002
      1.89319998e-001 -9.83607024e-003 -5.24272025e-001 -4.59016003e-002
      -5.33981025e-001 -1.21311001e-001 4.85436991e-003 -1.21311001e-001
      1.45631004e-002 -6.55737985e-003 -8.25242996e-002 -6.55737985e-003
      -8.25242996e-002 -9.50819999e-002 -3.73786002e-001 6.55737966e-002
      -3.93204004e-001 -1.60656005e-001 1.94175001e-002 -4.85436991e-002
      4.59016003e-002</_>
    <_>
      -2.82958001e-001 -9.17430967e-003 0. -1.14679001e-001 0.
      -1.05504997e-001 0. -2.20183000e-001 -2.57235002e-002
      2.38532007e-001 6.10932000e-002 1.83486000e-001 2.89389007e-002
      -5.41284025e-001 -4.50160988e-002 -5.36696970e-001
      -1.31833002e-001 -9.17430967e-003 -1.31833002e-001 9.17430967e-003
      0. -9.63303000e-002 -3.21543007e-003 -9.63303000e-002
      -7.71704018e-002 -3.89907986e-001 7.07395971e-002 -3.80733997e-001
      -1.47909999e-001 -9.17430967e-003 1.83486007e-002 6.43086992e-003</_>
    <_>
      -2.88590997e-001 5.02513023e-003 0. -1.75879002e-001 0.
      -9.54774022e-002 0. -2.71357000e-001 -2.01341994e-002
      2.51255989e-001 6.04026988e-002 1.95979998e-001 2.68456005e-002
      -5.17588019e-001 -3.35570015e-002 -5.22612989e-001
      -1.24160998e-001 -5.02513023e-003 -1.24160998e-001 1.00502996e-002
      0. -9.04522985e-002 -3.35570006e-003 -8.54270980e-002
      -9.06039998e-002 -4.02009994e-001 9.39596966e-002 -4.17084992e-001
      -1.84563994e-001 1.50753995e-002 0. -2.34898999e-002</_>
    <_>
      -2.65432000e-001 -4.46429010e-003 0. -2.09821001e-001
      3.08642001e-003 -1.11607000e-001 3.08642001e-003 -3.21429014e-001
      -2.16048993e-002 2.72320986e-001 4.32098992e-002 2.18750000e-001
      2.46913992e-002 -5.49107015e-001 -2.16048993e-002 -5.53570986e-001
      -1.23457000e-001 -8.92856997e-003 -1.23457000e-001 4.46429010e-003
      0. -9.37500000e-002 0. -9.37500000e-002 -9.56790000e-002
      -4.15179014e-001 8.33332986e-002 -4.15179014e-001 -1.79012001e-001
      0. 1.78571008e-002 -3.08641996e-002</_>
    <_>
      -2.62997001e-001 8.88889004e-003 -9.17430967e-003 -2.08888993e-001
      -6.11621002e-003 -9.33332965e-002 -1.52904997e-002
      -3.02222013e-001 -1.22323995e-002 2.75555998e-001 6.72783032e-002
      2.04444006e-001 1.52904997e-002 -5.33333004e-001 -5.50458990e-002
      -5.28889000e-001 -1.31497994e-001 0. -1.34556994e-001
      8.88889004e-003 -3.05809989e-003 -9.77777988e-002 -3.05809989e-003
      -9.33332965e-002 -8.25688019e-002 -3.55556011e-001 6.11620992e-002
      -3.60000014e-001 -1.43730998e-001 4.44443990e-003 -1.33333001e-002
      1.52904997e-002</_>
    <_>
      -2.61323988e-001 4.56620986e-003 -6.96863979e-003 -2.10045993e-001
      0. -9.13242027e-002 -6.96863979e-003 -3.01369995e-001
      -2.43902002e-002 2.46574998e-001 6.27178028e-002 1.91780999e-001
      3.13589014e-002 -4.70319986e-001 -4.18118015e-002 -4.74886000e-001
      -1.25435993e-001 4.56620986e-003 -1.28920004e-001 4.56620986e-003
      -3.48431990e-003 -7.30594024e-002 0. -7.30594024e-002
      -7.31706992e-002 -2.96804011e-001 8.71080011e-002 -3.10501993e-001
      -1.60279006e-001 1.36986002e-002 -3.19635011e-002 1.39373001e-002</_>
    <_>
      -2.31975004e-001 4.36680997e-003 -3.13479989e-003 -2.40174994e-001
      3.13479989e-003 -7.42357969e-002 0. -3.14410001e-001
      -9.40439012e-003 2.40174994e-001 5.01567014e-002 1.92139998e-001
      1.56740006e-002 -5.19650996e-001 -9.40439012e-003 -5.24016976e-001
      -1.34795994e-001 0. -1.37931004e-001 8.73361994e-003 0.
      -9.60699022e-002 0. -9.17031020e-002 -6.26958981e-002
      -3.75546008e-001 9.09091011e-002 -3.88646007e-001 -1.53604999e-001
      1.31003996e-002 -4.36680997e-003 -3.44827995e-002</_>
    <_>
      -2.45955005e-001 1.44231003e-002 -9.70873982e-003 -2.16345996e-001
      -3.23625002e-003 -7.69231021e-002 -1.29450001e-002
      -2.93269008e-001 -6.47248980e-003 2.50000000e-001 6.14886992e-002
      1.87500000e-001 0. -5.38461983e-001 -3.55986990e-002
      -5.43268979e-001 -1.26213998e-001 0. -1.29449993e-001
      2.40384992e-002 -3.23625002e-003 -9.13461968e-002 -6.47248980e-003
      -9.61538032e-002 -9.06149000e-002 -4.27884996e-001 8.09061006e-002
      -4.51923013e-001 -1.71520993e-001 2.40384992e-002 -3.36537994e-002
      -6.47248980e-003</_>
    <_>
      -1.93547994e-001 3.92156979e-003 -2.93254992e-003 -1.64706007e-001
      0. -9.01961029e-002 -2.93254992e-003 -2.54902005e-001
      8.79765023e-003 2.47059003e-001 2.63930000e-002 1.84313998e-001
      -2.34603994e-002 -4.94118005e-001 -5.86509984e-003
      -5.05882025e-001 -1.31964996e-001 3.92156979e-003 -1.29032001e-001
      1.17646996e-002 -2.93254992e-003 -7.84313977e-002 0.
      -7.45097995e-002 -1.02638997e-001 -3.49020004e-001 6.15836009e-002
      -3.64706010e-001 -1.64223000e-001 1.56862997e-002 -4.31373008e-002
      2.93255001e-002</_></support_vectors>
  <decision_functions>
    <_>
      <sv_count>10</sv_count>
      <rho>3.2109528072601527e-002</rho>
      <alpha>
        1.0091481288025526e+007 1.0091481288025526e+007
        4.1041575708701084e+006 7.9551625683203936e+006
        -5.7385106045732871e+006 -8.1087901097954251e+006
        -1.4868013640473078e+006 -4.7161600281718811e+006
        -3.4563764293923499e+006 -8.7356441792613100e+006</alpha>
      <index>
        0 1 2 3 4 5 6 7 8 9</index></_></decision_functions></my_svm>
</opencv_storage>
