<?xml version="1.0"?>
<opencv_storage>
<my_svm type_id="opencv-ml-svm">
  <svm_type>NU_SVC</svm_type>
  <kernel><type>RBF</type>
    <gamma>2.2500000000000003e-003</gamma></kernel>
  <nu>1.0000000000000000e-002</nu>
  <term_criteria><epsilon>2.2204460492503131e-016</epsilon>
    <iterations>1000</iterations></term_criteria>
  <var_all>32</var_all>
  <var_count>32</var_count>
  <class_count>2</class_count>
  <class_labels type_id="opencv-matrix">
    <rows>1</rows>
    <cols>2</cols>
    <dt>i</dt>
    <data>
      0 1</data></class_labels>
  <sv_total>8</sv_total>
  <support_vectors>
    <_>
      -3.10714006e-001 -9.38966963e-003 3.57142999e-003 -1.22065999e-001
      3.57142999e-003 -7.04225004e-002 7.14285998e-003 -1.92488000e-001
      -4.64285985e-002 2.01877996e-001 6.07143007e-002 1.50234997e-001
      5.35713993e-002 -4.60094005e-001 -4.28570993e-002 -4.60094005e-001
      -1.42857000e-001 -1.40845003e-002 -1.39285997e-001 9.38966963e-003
      3.57142999e-003 -8.92018974e-002 -3.57142999e-003 -8.92018974e-002
      -7.50000030e-002 -3.56808007e-001 7.85714015e-002 -3.52113008e-001
      -1.53570995e-001 -4.69483994e-003 2.34741997e-002 -2.14286000e-002</_>
    <_>
      -3.00884992e-001 2.58303005e-002 -8.84956028e-003 -1.18081003e-001
      -8.84956028e-003 -8.48708004e-002 -1.76991001e-002
      -2.02951998e-001 0. 2.02951998e-001 7.66962022e-002
      1.51291996e-001 8.84956028e-003 -4.57565010e-001 -6.78466037e-002
      -4.42804009e-001 -1.29794002e-001 0. -1.29794002e-001
      1.47601003e-002 -5.89969987e-003 -6.64206967e-002 -2.94984994e-003
      -6.64206967e-002 -9.43953022e-002 -2.91512996e-001 7.96459988e-002
      -2.98893005e-001 -1.74041003e-001 7.38007016e-003 -4.79704998e-002
      5.01474999e-002</_>
    <_>
      -3.30000013e-001 -8.58369004e-003 0. -1.84549004e-001 0.
      -6.43777028e-002 0. -2.48926997e-001 -1.66666992e-002
      2.01717004e-001 5.66666983e-002 1.71673998e-001 4.66667004e-002
      -4.59226996e-001 -5.33333011e-002 -4.63519007e-001
      -1.33332998e-001 -8.58369004e-003 -1.36666998e-001 8.58369004e-003
      0. -8.15450996e-002 0. -8.15450996e-002 -9.33332965e-002
      -3.60514998e-001 8.33332986e-002 -3.60514998e-001 -1.76667005e-001
      0. 1.71674006e-002 -2.99999993e-002</_>
    <_>
      -2.89855003e-001 1.86046995e-002 -3.62319010e-003 -9.76743996e-002
      -3.62319010e-003 -1.02325998e-001 -7.24638021e-003
      -2.00000003e-001 -2.17390992e-002 2.18604997e-001 7.24638030e-002
      1.67441994e-001 2.89855003e-002 -4.88371998e-001 -4.34782989e-002
      -4.83720988e-001 -1.34057999e-001 4.65115998e-003 -1.34057999e-001
      9.30233020e-003 -3.62319010e-003 -7.90698007e-002 0.
      -7.90698007e-002 -7.97101036e-002 -3.48836988e-001 8.33332986e-002
      -3.62791002e-001 -1.63043007e-001 1.39535004e-002 -5.11628017e-002
      4.34782989e-002</_>
    <_>
      -3.22580993e-001 2.71738991e-002 -8.06451961e-003 -1.14129998e-001
      -4.03225981e-003 -7.60869980e-002 -1.20967999e-002
      -1.90217003e-001 -2.82258000e-002 2.11956993e-001 8.06452036e-002
      1.41304001e-001 2.41934992e-002 -4.34783012e-001 -7.66128972e-002
      -4.18478012e-001 -1.25000000e-001 1.08695999e-002 -1.29032001e-001
      1.08695999e-002 -4.03225981e-003 -6.52173981e-002 -4.03225981e-003
      -7.06522018e-002 -8.46773982e-002 -3.31521988e-001 6.04838990e-002
      -3.47826004e-001 -1.45161003e-001 1.63042992e-002 -3.26086991e-002
      1.61290001e-002</_>
    <_>
      -3.30985993e-001 0. -3.52112995e-003 -1.92661002e-001
      -3.52112995e-003 -6.88072965e-002 -7.04225013e-003
      -2.61467993e-001 -4.22535017e-002 1.97247997e-001 8.45070034e-002
      1.46788999e-001 5.98592013e-002 -4.44954008e-001 -5.98592013e-002
      -4.35779989e-001 -1.33802995e-001 -1.37614999e-002
      -1.33802995e-001 0. 0. -7.33944997e-002 0. -7.33944997e-002
      -7.74647966e-002 -3.30274999e-001 9.50703993e-002 -3.21101010e-001
      -1.72535002e-001 -9.17430967e-003 1.83486007e-002 0.</_>
    <_>
      -3.61624002e-001 4.92611015e-003 0. -1.67487994e-001 0.
      -5.91133013e-002 0. -2.26601005e-001 -5.16605005e-002
      1.97044000e-001 7.74907991e-002 1.37931004e-001 6.27306029e-002
      -3.99015009e-001 -6.64206967e-002 -3.94089013e-001
      -1.21771000e-001 -9.85222030e-003 -1.21771000e-001 4.92611015e-003
      0. -5.91133013e-002 0. -5.41872010e-002 -1.07010998e-001
      -3.05418998e-001 8.11808035e-002 -3.00493002e-001 -1.88191995e-001
      -4.92611015e-003 1.47783002e-002 -2.58303005e-002</_>
    <_>
      -2.97385991e-001 1.85185000e-002 -3.26796994e-003 -1.62037000e-001
      0. -6.94444031e-002 -3.26796994e-003 -2.31481001e-001
      -2.61438005e-002 2.03704000e-001 6.53595030e-002 1.52778000e-001
      2.94118002e-002 -4.72222000e-001 -5.88234998e-002 -4.67593014e-001
      -1.20915003e-001 4.62963013e-003 -1.17647000e-001 1.38889002e-002
      -3.26796994e-003 -6.94444031e-002 -3.26796994e-003
      -6.94444031e-002 -9.47711989e-002 -3.56480986e-001 6.20914996e-002
      -3.70370001e-001 -1.56863004e-001 1.38889002e-002 -2.77778003e-002
      1.30719002e-002</_></support_vectors>
  <decision_functions>
    <_>
      <sv_count>8</sv_count>
      <rho>-1.5239483797158435e+000</rho>
      <alpha>
        1.3779863650965646e+004 7.8587056095911976e+004
        1.4221333925937532e+005 7.6305737775234320e+003
        -2.8411902527504168e+004 -8.9151575373128420e+004
        -7.4152548610688009e+003 -1.1723210002207506e+005</alpha>
      <index>
        0 1 2 3 4 5 6 7</index></_></decision_functions></my_svm>
</opencv_storage>
