<?xml version="1.0"?>
<opencv_storage>
<my_svm type_id="opencv-ml-svm">
  <svm_type>NU_SVC</svm_type>
  <kernel><type>RBF</type>
    <gamma>1.0000000000000001e-005</gamma></kernel>
  <nu>1.0000000000000000e-002</nu>
  <term_criteria><epsilon>2.2204460492503131e-016</epsilon>
    <iterations>1000</iterations></term_criteria>
  <var_all>32</var_all>
  <var_count>32</var_count>
  <class_count>2</class_count>
  <class_labels type_id="opencv-matrix">
    <rows>1</rows>
    <cols>2</cols>
    <dt>i</dt>
    <data>
      0 1</data></class_labels>
  <sv_total>8</sv_total>
  <support_vectors>
    <_>
      -2.58502990e-001 1.88679006e-002 -6.80272002e-003 -1.17925003e-001
      -3.40136001e-003 -9.90566015e-002 -1.02041001e-002
      -2.16980994e-001 -6.80272002e-003 2.35848993e-001 6.12245016e-002
      1.60376996e-001 0. -5.04716992e-001 -3.74150015e-002
      -5.00000000e-001 -1.22449003e-001 0. -1.25850007e-001
      9.43395961e-003 -3.40136001e-003 -8.01886991e-002 -3.40136001e-003
      -8.01886991e-002 -8.16327035e-002 -3.53774011e-001 7.14285970e-002
      -3.63207996e-001 -1.53061002e-001 9.43395961e-003 -2.83019003e-002
      -3.40136001e-003</_>
    <_>
      -3.12864989e-001 7.75193982e-003 0. -1.39534995e-001 0.
      -6.58914968e-002 0. -2.05425993e-001 -2.63158008e-002
      2.13177994e-001 6.43275008e-002 1.58914998e-001 4.67836000e-002
      -4.61239994e-001 -3.21636982e-002 -4.57363993e-001
      -1.40350997e-001 -7.75193982e-003 -1.40350997e-001 7.75193982e-003
      2.92397989e-003 -9.30233002e-002 0. -8.91472995e-002
      -7.60233998e-002 -3.52712989e-001 9.06433016e-002 -3.56588989e-001
      -1.66666999e-001 3.87596991e-003 7.75193982e-003 -3.50877009e-002</_>
    <_>
      -3.01775008e-001 7.43493997e-003 -2.95857992e-003 -1.04088999e-001
      -5.91715984e-003 -1.07807003e-001 -8.87573976e-003
      -2.11896002e-001 -1.18343001e-002 2.41635993e-001 6.80473000e-002
      1.85874000e-001 1.18343001e-002 -4.49813992e-001 -5.02959006e-002
      -4.46096987e-001 -1.30178005e-001 3.71746998e-003 -1.36095002e-001
      0. -5.91715984e-003 -7.80669004e-002 -2.95857992e-003
      -7.80669004e-002 -8.87574032e-002 -2.52788007e-001 7.69231021e-002
      -2.52788007e-001 -1.65680006e-001 0. -1.85873993e-002
      2.66271997e-002</_>
    <_>
      -2.71930009e-001 -1.20000001e-002 2.92397989e-003 -1.23999998e-001
      0. -8.39999989e-002 2.92397989e-003 -2.08000004e-001
      -2.33918000e-002 2.24000007e-001 5.26316017e-002 1.80000007e-001
      1.16959000e-002 -4.67999995e-001 -1.75439008e-002 -4.79999989e-001
      -1.25731006e-001 -4.00000019e-003 -1.28655002e-001 8.00000038e-003
      0. -8.39999989e-002 0. -7.99999982e-002 -8.18713009e-002
      -3.03999990e-001 9.35672969e-002 -3.07999998e-001 -1.75439000e-001
      4.00000019e-003 0. 2.92397989e-003</_>
    <_>
      -2.85140991e-001 -1.65746007e-002 4.01605992e-003 -1.49170995e-001
      4.01605992e-003 -9.39226970e-002 8.03213008e-003 -2.43093997e-001
      -2.40963995e-002 2.32043996e-001 5.22087999e-002 1.93370000e-001
      5.22087999e-002 -4.97238010e-001 -2.40963995e-002 -5.02762020e-001
      -1.28514007e-001 -1.10497000e-002 -1.32530004e-001 5.52486023e-003
      4.01605992e-003 -8.28728974e-002 0. -8.83978009e-002
      -5.22087999e-002 -3.09392005e-001 7.22891986e-002 -3.03867012e-001
      -1.24498002e-001 -5.52486023e-003 4.41989005e-002 -7.63052031e-002</_>
    <_>
      -2.80701995e-001 0. 0. -1.37614995e-001 0. -8.71559978e-002 0.
      -2.24770993e-001 -1.40351001e-002 2.20183000e-001 5.26316017e-002
      1.78899005e-001 3.15788984e-002 -4.31192994e-001 -1.75439008e-002
      -4.31192994e-001 -1.29824996e-001 4.58715996e-003 -1.29824996e-001
      -9.17430967e-003 -3.50876991e-003 -6.88072965e-002 7.01753981e-003
      -6.88072965e-002 -8.77192989e-002 -3.11926991e-001 9.12280977e-002
      -3.11926991e-001 -1.78947002e-001 0. 1.83486007e-002
      -5.61404005e-002</_>
    <_>
      -3.02419007e-001 -1.09890001e-002 8.06451961e-003 -1.20879002e-001
      4.03225981e-003 -7.69231021e-002 1.20967999e-002 -1.97802007e-001
      -3.22581008e-002 1.97802007e-001 6.04838990e-002 1.70330003e-001
      6.04838990e-002 -4.78022009e-001 -3.22581008e-002 -4.83516008e-001
      -1.37097001e-001 -1.09890001e-002 -1.37097001e-001 5.49450982e-003
      0. -8.79120976e-002 4.03225981e-003 -8.79120976e-002
      -5.64516000e-002 -3.18681002e-001 8.87096971e-002 -3.24176013e-001
      -1.45161003e-001 5.49450982e-003 3.84614989e-002 -7.25805983e-002</_>
    <_>
      -2.77965993e-001 1.91388000e-002 -6.77966001e-003 -1.48324996e-001
      -6.77966001e-003 -1.00478001e-001 -1.35593005e-002
      -2.48804003e-001 -1.35593005e-002 2.48804003e-001 7.11864009e-002
      1.96171999e-001 -3.38983000e-003 -5.16745985e-001 -6.44067973e-002
      -5.16745985e-001 -1.35592997e-001 1.43541005e-002 -1.38982996e-001
      1.43541005e-002 -6.77966001e-003 -1.00478001e-001 -6.77966001e-003
      -1.00478001e-001 -9.49153006e-002 -3.49281996e-001 5.42372987e-002
      -3.63635987e-001 -1.49152994e-001 1.43541005e-002 -4.30621989e-002
      2.71186009e-002</_></support_vectors>
  <decision_functions>
    <_>
      <sv_count>8</sv_count>
      <rho>-9.2541464398659246e-001</rho>
      <alpha>
        -3.6008542676800243e+006 -1.1228389419638453e+007
        -1.1467451060938612e+006 -3.0442902331603384e+006
        -6.9925301058345251e+006 8.6323377590956241e+006
        1.0500001108397106e+007 6.8804702649144884e+006</alpha>
      <index>
        0 1 2 3 4 5 6 7</index></_></decision_functions></my_svm>
</opencv_storage>
